<?xml version="1.0"?>
<opencv_storage>
<cascade>
  <stageType>BOOST</stageType>
  <featureType>HAAR</featureType>
  <height>24</height>
  <width>24</width>
  <stageParams>
    <boostType>GAB</boostType>
    <minHitRate>9.9500000476837158e-01</minHitRate>
    <maxFalseAlarm>5.0000000000000000e-01</maxFalseAlarm>
    <weightTrimRate>9.4999998807907104e-01</weightTrimRate>
    <maxDepth>1</maxDepth>
    <maxWeakCount>100</maxWeakCount></stageParams>
  <featureParams>
    <maxCatCount>0</maxCatCount>
    <featSize>1</featSize>
    <mode>BASIC</mode></featureParams>
  <stageNum>21</stageNum>
  <stages>
    <!-- stage 0 -->
    <_>
      <maxWeakCount>5</maxWeakCount>
      <stageThreshold>-8.0503416061401367e-01</stageThreshold>
      <weakClassifiers>
        <_>
          <internalNodes>
            0 -1 14 5.5747710168361664e-02</internalNodes>
          <leafValues>
            -7.0515972375869751e-01 7.2027969360351563e-01</leafValues></_>
        <_>
          <internalNodes>
            0 -1 176 -4.0958437602967024e-04</internalNodes>
          <leafValues>
            -8.5009086132049561e-01 2.2475853562355042e-01</leafValues></_>
        <_>
          <internalNodes>
            0 -1 176 5.9697357937693596e-04</internalNodes>
          <leafValues>
            3.0855816602706909e-01 -8.1188553571701050e-01</leafValues></_>
        <_>
          <internalNodes>
            0 -1 169 5.9218739625066519e-04</internalNodes>
          <leafValues>
            2.2402049601078033e-01 -8.8233375549316406e-01</leafValues></_>
        <_>
          <internalNodes>
            0 -1 139 1.0357595747336745e-03</internalNodes>
          <leafValues>
            2.6323202252388000e-01 -7.4746018648147583e-01</leafValues></_></weakClassifiers></_>
    <!-- stage 1 -->
    <_>
      <maxWeakCount>5</maxWeakCount>
      <stageThreshold>-1.5701066255569458e+00</stageThreshold>
      <weakClassifiers>
        <_>
          <internalNodes>
            0 -1 18 9.9046900868415833e-02</internalNodes>
          <leafValues>
            -6.0089683532714844e-01 8.0769228935241699e-01</leafValues></_>
        <_>
          <internalNodes>
            0 -1 44 -7.5794575968757272e-04</internalNodes>
          <leafValues>
            -7.6159787178039551e-01 2.7481421828269958e-01</leafValues></_>
        <_>
          <internalNodes>
            0 -1 146 6.7900103749707341e-04</internalNodes>
          <leafValues>
            2.7289113402366638e-01 -7.8509014844894409e-01</leafValues></_>
        <_>
          <internalNodes>
            0 -1 68 -6.0979381669312716e-04</internalNodes>
          <leafValues>
            -7.6076030731201172e-01 2.9505944252014160e-01</leafValues></_>
        <_>
          <internalNodes>
            0 -1 157 4.9528642557561398e-04</internalNodes>
          <leafValues>
            2.6381772756576538e-01 -7.5615471601486206e-01</leafValues></_></weakClassifiers></_>
    <!-- stage 2 -->
    <_>
      <maxWeakCount>5</maxWeakCount>
      <stageThreshold>-6.8272614479064941e-01</stageThreshold>
      <weakClassifiers>
        <_>
          <internalNodes>
            0 -1 36 3.0912864208221436e-01</internalNodes>
          <leafValues>
            -5.7046979665756226e-01 6.8932038545608521e-01</leafValues></_>
        <_>
          <internalNodes>
            0 -1 32 -5.9497274924069643e-04</internalNodes>
          <leafValues>
            -8.0457752943038940e-01 2.2571957111358643e-01</leafValues></_>
        <_>
          <internalNodes>
            0 -1 171 -5.2805390441790223e-04</internalNodes>
          <leafValues>
            -7.7276164293289185e-01 2.1804733574390411e-01</leafValues></_>
        <_>
          <internalNodes>
            0 -1 136 5.4163183085620403e-04</internalNodes>
          <leafValues>
            2.5093793869018555e-01 -7.4688154458999634e-01</leafValues></_>
        <_>
          <internalNodes>
            0 -1 26 2.6550651527941227e-03</internalNodes>
          <leafValues>
            2.7344113588333130e-01 -8.0696117877960205e-01</leafValues></_></weakClassifiers></_>
    <!-- stage 3 -->
    <_>
      <maxWeakCount>8</maxWeakCount>
      <stageThreshold>-8.8697683811187744e-01</stageThreshold>
      <weakClassifiers>
        <_>
          <internalNodes>
            0 -1 34 2.5440740585327148e-01</internalNodes>
          <leafValues>
            -5.8472555875778198e-01 4.6564885973930359e-01</leafValues></_>
        <_>
          <internalNodes>
            0 -1 43 -4.2042965069413185e-03</internalNodes>
          <leafValues>
            -9.0438461303710938e-01 1.5544472634792328e-01</leafValues></_>
        <_>
          <internalNodes>
            0 -1 162 -1.2693428434431553e-03</internalNodes>
          <leafValues>
            -6.9395816326141357e-01 2.2361285984516144e-01</leafValues></_>
        <_>
          <internalNodes>
            0 -1 159 2.4894764646887779e-03</internalNodes>
          <leafValues>
            2.3981824517250061e-01 -8.0770480632781982e-01</leafValues></_>
        <_>
          <internalNodes>
            0 -1 52 7.3062977753579617e-04</internalNodes>
          <leafValues>
            2.7662923932075500e-01 -6.4748406410217285e-01</leafValues></_>
        <_>
          <internalNodes>
            0 -1 17 -1.2401737039908767e-03</internalNodes>
          <leafValues>
            -7.8888034820556641e-01 2.3963966965675354e-01</leafValues></_>
        <_>
          <internalNodes>
            0 -1 17 1.3794233091175556e-03</internalNodes>
          <leafValues>
            1.9249562919139862e-01 -7.2135639190673828e-01</leafValues></_>
        <_>
          <internalNodes>
            0 -1 31 -1.3738904381170869e-03</internalNodes>
          <leafValues>
            -5.1659047603607178e-01 3.4174469113349915e-01</leafValues></_></weakClassifiers></_>
    <!-- stage 4 -->
    <_>
      <maxWeakCount>9</maxWeakCount>
      <stageThreshold>-1.6518179178237915e+00</stageThreshold>
      <weakClassifiers>
        <_>
          <internalNodes>
            0 -1 15 1.4909502863883972e-01</internalNodes>
          <leafValues>
            -5.0000000000000000e-01 6.0975611209869385e-01</leafValues></_>
        <_>
          <internalNodes>
            0 -1 32 6.2592455651611090e-04</internalNodes>
          <leafValues>
            2.1768674254417419e-01 -7.7482730150222778e-01</leafValues></_>
        <_>
          <internalNodes>
            0 -1 140 -5.5914802942425013e-04</internalNodes>
          <leafValues>
            -6.2537080049514771e-01 2.4459430575370789e-01</leafValues></_>
        <_>
          <internalNodes>
            0 -1 141 -6.6107662860304117e-04</internalNodes>
          <leafValues>
            -9.2479234933853149e-01 1.9576771557331085e-01</leafValues></_>
        <_>
          <internalNodes>
            0 -1 170 -3.9020524127408862e-04</internalNodes>
          <leafValues>
            -7.5744432210922241e-01 1.6186740994453430e-01</leafValues></_>
        <_>
          <internalNodes>
            0 -1 25 -9.4998022541403770e-04</internalNodes>
          <leafValues>
            -7.5433665513992310e-01 2.1783383190631866e-01</leafValues></_>
        <_>
          <internalNodes>
            0 -1 1 -5.0452339928597212e-04</internalNodes>
          <leafValues>
            -7.6734864711761475e-01 1.8789498507976532e-01</leafValues></_>
        <_>
          <internalNodes>
            0 -1 67 8.6778786499053240e-04</internalNodes>
          <leafValues>
            2.7360892295837402e-01 -6.6249966621398926e-01</leafValues></_>
        <_>
          <internalNodes>
            0 -1 2 -8.3626457490026951e-04</internalNodes>
          <leafValues>
            -7.8034973144531250e-01 1.4751592278480530e-01</leafValues></_></weakClassifiers></_>
    <!-- stage 5 -->
    <_>
      <maxWeakCount>10</maxWeakCount>
      <stageThreshold>-1.4233391284942627e+00</stageThreshold>
      <weakClassifiers>
        <_>
          <internalNodes>
            0 -1 19 3.0637067556381226e-01</internalNodes>
          <leafValues>
            -5.2462524175643921e-01 7.3493975400924683e-01</leafValues></_>
        <_>
          <internalNodes>
            0 -1 12 4.8104679584503174e-01</internalNodes>
          <leafValues>
            -2.2100788354873657e-01 8.6974656581878662e-01</leafValues></_>
        <_>
          <internalNodes>
            0 -1 13 -2.3573949001729488e-03</internalNodes>
          <leafValues>
            -7.7922594547271729e-01 2.3695278167724609e-01</leafValues></_>
        <_>
          <internalNodes>
            0 -1 160 -1.3766100164502859e-03</internalNodes>
          <leafValues>
            -6.9235342741012573e-01 2.1914617717266083e-01</leafValues></_>
        <_>
          <internalNodes>
            0 -1 156 2.1202266216278076e-03</internalNodes>
          <leafValues>
            2.4881409108638763e-01 -6.9612127542495728e-01</leafValues></_>
        <_>
          <internalNodes>
            0 -1 22 -6.2126545235514641e-03</internalNodes>
          <leafValues>
            -7.1724402904510498e-01 2.1845144033432007e-01</leafValues></_>
        <_>
          <internalNodes>
            0 -1 95 5.0076870247721672e-03</internalNodes>
          <leafValues>
            1.6690924763679504e-01 -8.0392998456954956e-01</leafValues></_>
        <_>
          <internalNodes>
            0 -1 163 1.4560181880369782e-03</internalNodes>
          <leafValues>
            1.7579665780067444e-01 -6.9690489768981934e-01</leafValues></_>
        <_>
          <internalNodes>
            0 -1 78 1.2299845366214868e-05</internalNodes>
          <leafValues>
            -2.8504380583763123e-01 5.3743433952331543e-01</leafValues></_>
        <_>
          <internalNodes>
            0 -1 114 -4.2318610940128565e-04</internalNodes>
          <leafValues>
            -6.2763470411300659e-01 2.9314160346984863e-01</leafValues></_></weakClassifiers></_>
    <!-- stage 6 -->
    <_>
      <maxWeakCount>7</maxWeakCount>
      <stageThreshold>-9.7151857614517212e-01</stageThreshold>
      <weakClassifiers>
        <_>
          <internalNodes>
            0 -1 46 1.1803181469440460e-01</internalNodes>
          <leafValues>
            -5.7919621467590332e-01 4.8031497001647949e-01</leafValues></_>
        <_>
          <internalNodes>
            0 -1 87 -2.1923104213783517e-05</internalNodes>
          <leafValues>
            5.4542976617813110e-01 -3.5400852560997009e-01</leafValues></_>
        <_>
          <internalNodes>
            0 -1 77 -1.4237187315302435e-05</internalNodes>
          <leafValues>
            4.9615260958671570e-01 -3.5707157850265503e-01</leafValues></_>
        <_>
          <internalNodes>
            0 -1 66 5.7233758270740509e-03</internalNodes>
          <leafValues>
            2.4332928657531738e-01 -8.2824188470840454e-01</leafValues></_>
        <_>
          <internalNodes>
            0 -1 100 1.1794956662924960e-05</internalNodes>
          <leafValues>
            -2.8372159600257874e-01 5.9727370738983154e-01</leafValues></_>
        <_>
          <internalNodes>
            0 -1 153 2.3740767501294613e-03</internalNodes>
          <leafValues>
            2.6363831758499146e-01 -7.4591714143753052e-01</leafValues></_>
        <_>
          <internalNodes>
            0 -1 5 -2.8218072839081287e-03</internalNodes>
          <leafValues>
            -7.8072780370712280e-01 2.0562893152236938e-01</leafValues></_></weakClassifiers></_>
    <!-- stage 7 -->
    <_>
      <maxWeakCount>4</maxWeakCount>
      <stageThreshold>-8.9225322008132935e-01</stageThreshold>
      <weakClassifiers>
        <_>
          <internalNodes>
            0 -1 143 -1.5291087038349360e-05</internalNodes>
          <leafValues>
            8.0165290832519531e-01 -6.5501165390014648e-01</leafValues></_>
        <_>
          <internalNodes>
            0 -1 63 1.3581070561485831e-05</internalNodes>
          <leafValues>
            -5.2360910177230835e-01 8.1759256124496460e-01</leafValues></_>
        <_>
          <internalNodes>
            0 -1 89 2.0387613403727300e-05</internalNodes>
          <leafValues>
            -5.8446925878524780e-01 6.8988490104675293e-01</leafValues></_>
        <_>
          <internalNodes>
            0 -1 106 -1.1951997294090688e-05</internalNodes>
          <leafValues>
            9.0001362562179565e-01 -4.0351736545562744e-01</leafValues></_></weakClassifiers></_>
    <!-- stage 8 -->
    <_>
      <maxWeakCount>5</maxWeakCount>
      <stageThreshold>-1.0922472476959229e+00</stageThreshold>
      <weakClassifiers>
        <_>
          <internalNodes>
            0 -1 144 -1.2012596016575117e-05</internalNodes>
          <leafValues>
            7.2580647468566895e-01 -6.4319247007369995e-01</leafValues></_>
        <_>
          <internalNodes>
            0 -1 77 -1.2769440218107775e-05</internalNodes>
          <leafValues>
            7.8073781728744507e-01 -4.5058846473693848e-01</leafValues></_>
        <_>
          <internalNodes>
            0 -1 113 1.1573031770240050e-05</internalNodes>
          <leafValues>
            -4.0524721145629883e-01 8.3996468782424927e-01</leafValues></_>
        <_>
          <internalNodes>
            0 -1 122 -1.3415060493571218e-05</internalNodes>
          <leafValues>
            8.5586535930633545e-01 -3.5365107655525208e-01</leafValues></_>
        <_>
          <internalNodes>
            0 -1 72 -1.2071506716893055e-05</internalNodes>
          <leafValues>
            7.6043194532394409e-01 -3.7421974539756775e-01</leafValues></_></weakClassifiers></_>
    <!-- stage 9 -->
    <_>
      <maxWeakCount>5</maxWeakCount>
      <stageThreshold>-9.5859754085540771e-01</stageThreshold>
      <weakClassifiers>
        <_>
          <internalNodes>
            0 -1 92 -1.3374339687288739e-05</internalNodes>
          <leafValues>
            6.7213112115859985e-01 -6.2149530649185181e-01</leafValues></_>
        <_>
          <internalNodes>
            0 -1 124 -1.2617515494639520e-05</internalNodes>
          <leafValues>
            7.7783018350601196e-01 -4.1019967198371887e-01</leafValues></_>
        <_>
          <internalNodes>
            0 -1 125 -1.8120546883437783e-05</internalNodes>
          <leafValues>
            7.2620743513107300e-01 -4.3123191595077515e-01</leafValues></_>
        <_>
          <internalNodes>
            0 -1 58 1.2625915587705094e-05</internalNodes>
          <leafValues>
            -3.4524852037429810e-01 8.4598356485366821e-01</leafValues></_>
        <_>
          <internalNodes>
            0 -1 128 -1.3415060493571218e-05</internalNodes>
          <leafValues>
            8.7713891267776489e-01 -3.0786147713661194e-01</leafValues></_></weakClassifiers></_>
    <!-- stage 10 -->
    <_>
      <maxWeakCount>9</maxWeakCount>
      <stageThreshold>-1.2400276660919189e+00</stageThreshold>
      <weakClassifiers>
        <_>
          <internalNodes>
            0 -1 33 1.8219951540231705e-02</internalNodes>
          <leafValues>
            -6.5591394901275635e-01 3.3707866072654724e-01</leafValues></_>
        <_>
          <internalNodes>
            0 -1 127 1.5579531900584698e-03</internalNodes>
          <leafValues>
            -3.0924788117408752e-01 4.8079118132591248e-01</leafValues></_>
        <_>
          <internalNodes>
            0 -1 23 5.6484928354620934e-03</internalNodes>
          <leafValues>
            -1.8878638744354248e-01 6.9921594858169556e-01</leafValues></_>
        <_>
          <internalNodes>
            0 -1 56 3.6624874919652939e-03</internalNodes>
          <leafValues>
            -4.2165803909301758e-01 3.9341977238655090e-01</leafValues></_>
        <_>
          <internalNodes>
            0 -1 118 1.2566691730171442e-03</internalNodes>
          <leafValues>
            -2.3858669400215149e-01 4.5828902721405029e-01</leafValues></_>
        <_>
          <internalNodes>
            0 -1 155 -1.3122974451107439e-05</internalNodes>
          <leafValues>
            4.2754489183425903e-01 -2.6753789186477661e-01</leafValues></_>
        <_>
          <internalNodes>
            0 -1 96 1.4836478840152267e-05</internalNodes>
          <leafValues>
            -2.0504966378211975e-01 5.4128235578536987e-01</leafValues></_>
        <_>
          <internalNodes>
            0 -1 50 1.8622413277626038e-02</internalNodes>
          <leafValues>
            -2.2285471856594086e-01 6.0971987247467041e-01</leafValues></_>
        <_>
          <internalNodes>
            0 -1 112 1.1068330146372318e-02</internalNodes>
          <leafValues>
            -2.4055300652980804e-01 5.2412110567092896e-01</leafValues></_></weakClassifiers></_>
    <!-- stage 11 -->
    <_>
      <maxWeakCount>7</maxWeakCount>
      <stageThreshold>-9.6044152975082397e-01</stageThreshold>
      <weakClassifiers>
        <_>
          <internalNodes>
            0 -1 55 1.3386505842208862e-01</internalNodes>
          <leafValues>
            -5.9619951248168945e-01 5.1937985420227051e-01</leafValues></_>
        <_>
          <internalNodes>
            0 -1 20 4.0705475211143494e-01</internalNodes>
          <leafValues>
            1.5494927763938904e-01 -8.2449132204055786e-01</leafValues></_>
        <_>
          <internalNodes>
            0 -1 35 -5.2987998723983765e-01</internalNodes>
          <leafValues>
            -9.4987142086029053e-01 1.1626739054918289e-01</leafValues></_>
        <_>
          <internalNodes>
            0 -1 73 -1.0346435941755772e-02</internalNodes>
          <leafValues>
            7.8135120868682861e-01 -2.0887362957000732e-01</leafValues></_>
        <_>
          <internalNodes>
            0 -1 145 -5.4777403420303017e-05</internalNodes>
          <leafValues>
            -3.9140430092811584e-01 3.3230045437812805e-01</leafValues></_>
        <_>
          <internalNodes>
            0 -1 161 -4.1784351924434304e-04</internalNodes>
          <leafValues>
            -4.9419960379600525e-01 2.7446931600570679e-01</leafValues></_>
        <_>
          <internalNodes>
            0 -1 149 -1.6117548570036888e-02</internalNodes>
          <leafValues>
            5.7912409305572510e-01 -2.6468589901924133e-01</leafValues></_></weakClassifiers></_>
    <!-- stage 12 -->
    <_>
      <maxWeakCount>13</maxWeakCount>
      <stageThreshold>-8.8692069053649902e-01</stageThreshold>
      <weakClassifiers>
        <_>
          <internalNodes>
            0 -1 9 -2.5847646594047546e-01</internalNodes>
          <leafValues>
            -8.5897433757781982e-01 -1.2690354883670807e-01</leafValues></_>
        <_>
          <internalNodes>
            0 -1 30 1.4672850375063717e-04</internalNodes>
          <leafValues>
            1.4751367270946503e-01 -5.4135626554489136e-01</leafValues></_>
        <_>
          <internalNodes>
            0 -1 29 -1.0172303882427514e-04</internalNodes>
          <leafValues>
            -3.2987067103385925e-01 3.1425604224205017e-01</leafValues></_>
        <_>
          <internalNodes>
            0 -1 107 -1.0057918727397919e-02</internalNodes>
          <leafValues>
            3.3295542001724243e-01 -3.4056317806243896e-01</leafValues></_>
        <_>
          <internalNodes>
            0 -1 176 -1.5513791004195809e-04</internalNodes>
          <leafValues>
            -5.3197270631790161e-01 1.9296856224536896e-01</leafValues></_>
        <_>
          <internalNodes>
            0 -1 151 1.0280922288075089e-04</internalNodes>
          <leafValues>
            2.4779811501502991e-01 -4.6342396736145020e-01</leafValues></_>
        <_>
          <internalNodes>
            0 -1 41 -8.1899799406528473e-03</internalNodes>
          <leafValues>
            6.0370951890945435e-01 -2.0243428647518158e-01</leafValues></_>
        <_>
          <internalNodes>
            0 -1 60 -9.2083006165921688e-05</internalNodes>
          <leafValues>
            -4.7854989767074585e-01 2.3178808391094208e-01</leafValues></_>
        <_>
          <internalNodes>
            0 -1 174 1.4050678873900324e-04</internalNodes>
          <leafValues>
            2.2245648503303528e-01 -4.7418248653411865e-01</leafValues></_>
        <_>
          <internalNodes>
            0 -1 40 4.9677997827529907e-02</internalNodes>
          <leafValues>
            -3.0300775170326233e-01 3.9218914508819580e-01</leafValues></_>
        <_>
          <internalNodes>
            0 -1 88 -1.4660201035439968e-02</internalNodes>
          <leafValues>
            5.8730769157409668e-01 -2.2501169145107269e-01</leafValues></_>
        <_>
          <internalNodes>
            0 -1 7 1.6498204320669174e-02</internalNodes>
          <leafValues>
            -1.7456942796707153e-01 5.3751766681671143e-01</leafValues></_>
        <_>
          <internalNodes>
            0 -1 57 -1.6475100070238113e-02</internalNodes>
          <leafValues>
            8.2838946580886841e-01 -1.3914091885089874e-01</leafValues></_></weakClassifiers></_>
    <!-- stage 13 -->
    <_>
      <maxWeakCount>11</maxWeakCount>
      <stageThreshold>-1.3429628610610962e+00</stageThreshold>
      <weakClassifiers>
        <_>
          <internalNodes>
            0 -1 54 1.3421387970447540e-01</internalNodes>
          <leafValues>
            -5.8115184307098389e-01 2.2619047760963440e-01</leafValues></_>
        <_>
          <internalNodes>
            0 -1 8 -1.6609080135822296e-02</internalNodes>
          <leafValues>
            -8.2754242420196533e-01 1.0533416271209717e-01</leafValues></_>
        <_>
          <internalNodes>
            0 -1 131 -8.6424788460135460e-03</internalNodes>
          <leafValues>
            9.1052401065826416e-01 -1.5684029459953308e-01</leafValues></_>
        <_>
          <internalNodes>
            0 -1 167 -3.9120399742387235e-04</internalNodes>
          <leafValues>
            -5.2613830566406250e-01 2.7836164832115173e-01</leafValues></_>
        <_>
          <internalNodes>
            0 -1 137 -9.4823613762855530e-03</internalNodes>
          <leafValues>
            6.2755972146987915e-01 -2.3104675114154816e-01</leafValues></_>
        <_>
          <internalNodes>
            0 -1 121 3.9490655064582825e-02</internalNodes>
          <leafValues>
            -2.6615577936172485e-01 4.3598541617393494e-01</leafValues></_>
        <_>
          <internalNodes>
            0 -1 49 3.3098709583282471e-01</internalNodes>
          <leafValues>
            1.4279256761074066e-01 -7.3521912097930908e-01</leafValues></_>
        <_>
          <internalNodes>
            0 -1 164 -4.9241969827562571e-04</internalNodes>
          <leafValues>
            -7.4850505590438843e-01 1.0518599301576614e-01</leafValues></_>
        <_>
          <internalNodes>
            0 -1 39 2.8408499201759696e-04</internalNodes>
          <leafValues>
            1.8669542670249939e-01 -5.6513535976409912e-01</leafValues></_>
        <_>
          <internalNodes>
            0 -1 135 9.2510320246219635e-03</internalNodes>
          <leafValues>
            -2.0079194009304047e-01 5.6129890680313110e-01</leafValues></_>
        <_>
          <internalNodes>
            0 -1 3 -2.8707590536214411e-04</internalNodes>
          <leafValues>
            -5.6703627109527588e-01 2.0235523581504822e-01</leafValues></_></weakClassifiers></_>
    <!-- stage 14 -->
    <_>
      <maxWeakCount>7</maxWeakCount>
      <stageThreshold>-8.5483831167221069e-01</stageThreshold>
      <weakClassifiers>
        <_>
          <internalNodes>
            0 -1 45 1.5590500831604004e-01</internalNodes>
          <leafValues>
            -6.4516127109527588e-02 -8.9887642860412598e-01</leafValues></_>
        <_>
          <internalNodes>
            0 -1 10 3.5336112976074219e-01</internalNodes>
          <leafValues>
            8.2554049789905548e-02 -8.3800601959228516e-01</leafValues></_>
        <_>
          <internalNodes>
            0 -1 11 1.2045057862997055e-01</internalNodes>
          <leafValues>
            -3.4063428640365601e-01 4.3084380030632019e-01</leafValues></_>
        <_>
          <internalNodes>
            0 -1 51 -1.7027508467435837e-02</internalNodes>
          <leafValues>
            7.9407483339309692e-01 -2.3223461210727692e-01</leafValues></_>
        <_>
          <internalNodes>
            0 -1 123 -1.5106292441487312e-02</internalNodes>
          <leafValues>
            7.3617589473724365e-01 -1.5103287994861603e-01</leafValues></_>
        <_>
          <internalNodes>
            0 -1 165 -3.4262955887243152e-04</internalNodes>
          <leafValues>
            -5.8627921342849731e-01 2.5609496235847473e-01</leafValues></_>
        <_>
          <internalNodes>
            0 -1 109 -4.4644098728895187e-02</internalNodes>
          <leafValues>
            5.1645165681838989e-01 -2.5598743557929993e-01</leafValues></_></weakClassifiers></_>
    <!-- stage 15 -->
    <_>
      <maxWeakCount>12</maxWeakCount>
      <stageThreshold>-1.1551318168640137e+00</stageThreshold>
      <weakClassifiers>
        <_>
          <internalNodes>
            0 -1 53 1.7901755869388580e-02</internalNodes>
          <leafValues>
            -4.5770063996315002e-01 3.0337077379226685e-01</leafValues></_>
        <_>
          <internalNodes>
            0 -1 48 -3.0446762684732676e-04</internalNodes>
          <leafValues>
            -5.3719353675842285e-01 1.8728147447109222e-01</leafValues></_>
        <_>
          <internalNodes>
            0 -1 37 2.3520237300544977e-04</internalNodes>
          <leafValues>
            1.8911951780319214e-01 -4.8311266303062439e-01</leafValues></_>
        <_>
          <internalNodes>
            0 -1 101 -5.3714722162112594e-04</internalNodes>
          <leafValues>
            3.1850850582122803e-01 -2.9835867881774902e-01</leafValues></_>
        <_>
          <internalNodes>
            0 -1 132 -1.7288818489760160e-03</internalNodes>
          <leafValues>
            6.5997505187988281e-01 -1.4045400917530060e-01</leafValues></_>
        <_>
          <internalNodes>
            0 -1 93 9.7207240760326385e-03</internalNodes>
          <leafValues>
            -1.4599812030792236e-01 5.7082504034042358e-01</leafValues></_>
        <_>
          <internalNodes>
            0 -1 148 -1.4190035290084779e-04</internalNodes>
          <leafValues>
            -5.1516979932785034e-01 2.3016908764839172e-01</leafValues></_>
        <_>
          <internalNodes>
            0 -1 65 -5.2599459886550903e-03</internalNodes>
          <leafValues>
            4.9738520383834839e-01 -1.8941903114318848e-01</leafValues></_>
        <_>
          <internalNodes>
            0 -1 175 2.5683417334221303e-04</internalNodes>
          <leafValues>
            1.2381307780742645e-01 -7.0359951257705688e-01</leafValues></_>
        <_>
          <internalNodes>
            0 -1 24 2.0841456949710846e-02</internalNodes>
          <leafValues>
            -2.8362786769866943e-01 2.9262152314186096e-01</leafValues></_>
        <_>
          <internalNodes>
            0 -1 102 1.1203643865883350e-02</internalNodes>
          <leafValues>
            -1.0551521182060242e-01 7.8020727634429932e-01</leafValues></_>
        <_>
          <internalNodes>
            0 -1 119 -3.3275704830884933e-02</internalNodes>
          <leafValues>
            3.3085098862648010e-01 -2.7901345491409302e-01</leafValues></_></weakClassifiers></_>
    <!-- stage 16 -->
    <_>
      <maxWeakCount>12</maxWeakCount>
      <stageThreshold>-1.0272016525268555e+00</stageThreshold>
      <weakClassifiers>
        <_>
          <internalNodes>
            0 -1 79 1.1979442089796066e-01</internalNodes>
          <leafValues>
            -5.5737704038619995e-01 1.0869564861059189e-01</leafValues></_>
        <_>
          <internalNodes>
            0 -1 130 -9.3826353549957275e-03</internalNodes>
          <leafValues>
            6.3647961616516113e-01 -1.8812774121761322e-01</leafValues></_>
        <_>
          <internalNodes>
            0 -1 47 -1.2617492757271975e-04</internalNodes>
          <leafValues>
            -5.1670187711715698e-01 2.0614445209503174e-01</leafValues></_>
        <_>
          <internalNodes>
            0 -1 168 1.8796698714140803e-04</internalNodes>
          <leafValues>
            1.9211634993553162e-01 -4.9687767028808594e-01</leafValues></_>
        <_>
          <internalNodes>
            0 -1 61 3.4472420811653137e-03</internalNodes>
          <leafValues>
            -1.9239193201065063e-01 5.7108801603317261e-01</leafValues></_>
        <_>
          <internalNodes>
            0 -1 69 -9.4093205407261848e-03</internalNodes>
          <leafValues>
            7.1341818571090698e-01 -1.3906465470790863e-01</leafValues></_>
        <_>
          <internalNodes>
            0 -1 129 -6.5848289523273706e-05</internalNodes>
          <leafValues>
            -4.4513139128684998e-01 2.3319147527217865e-01</leafValues></_>
        <_>
          <internalNodes>
            0 -1 91 -1.7219558358192444e-03</internalNodes>
          <leafValues>
            5.1777696609497070e-01 -2.2026531398296356e-01</leafValues></_>
        <_>
          <internalNodes>
            0 -1 97 5.8482490479946136e-02</internalNodes>
          <leafValues>
            -1.4611981809139252e-01 7.5655680894851685e-01</leafValues></_>
        <_>
          <internalNodes>
            0 -1 75 -7.2661428712308407e-03</internalNodes>
          <leafValues>
            7.4177545309066772e-01 -1.1538609117269516e-01</leafValues></_>
        <_>
          <internalNodes>
            0 -1 134 2.0033704640809447e-04</internalNodes>
          <leafValues>
            -2.9888322949409485e-01 3.6925801634788513e-01</leafValues></_>
        <_>
          <internalNodes>
            0 -1 158 1.5287566930055618e-04</internalNodes>
          <leafValues>
            2.5573557615280151e-01 -4.4839370250701904e-01</leafValues></_></weakClassifiers></_>
    <!-- stage 17 -->
    <_>
      <maxWeakCount>13</maxWeakCount>
      <stageThreshold>-9.2276650667190552e-01</stageThreshold>
      <weakClassifiers>
        <_>
          <internalNodes>
            0 -1 74 -5.1651131361722946e-02</internalNodes>
          <leafValues>
            4.5454546809196472e-01 -4.4214877486228943e-01</leafValues></_>
        <_>
          <internalNodes>
            0 -1 152 3.9920800190884620e-05</internalNodes>
          <leafValues>
            1.9514314830303192e-01 -5.0604176521301270e-01</leafValues></_>
        <_>
          <internalNodes>
            0 -1 166 -1.9881693879142404e-04</internalNodes>
          <leafValues>
            -4.9601337313652039e-01 2.0488147437572479e-01</leafValues></_>
        <_>
          <internalNodes>
            0 -1 0 -1.8289244326297194e-04</internalNodes>
          <leafValues>
            -5.7024842500686646e-01 1.8654961884021759e-01</leafValues></_>
        <_>
          <internalNodes>
            0 -1 21 3.1499430537223816e-02</internalNodes>
          <leafValues>
            -3.2565537095069885e-01 2.9331818222999573e-01</leafValues></_>
        <_>
          <internalNodes>
            0 -1 98 1.8991447985172272e-02</internalNodes>
          <leafValues>
            -2.0439772307872772e-01 5.2188283205032349e-01</leafValues></_>
        <_>
          <internalNodes>
            0 -1 27 -2.1575365099124610e-04</internalNodes>
          <leafValues>
            -3.9511480927467346e-01 2.5226056575775146e-01</leafValues></_>
        <_>
          <internalNodes>
            0 -1 105 -1.1804281966760755e-03</internalNodes>
          <leafValues>
            4.2587092518806458e-01 -2.4040822684764862e-01</leafValues></_>
        <_>
          <internalNodes>
            0 -1 16 8.8300643255934119e-05</internalNodes>
          <leafValues>
            2.3491765558719635e-01 -4.4787704944610596e-01</leafValues></_>
        <_>
          <internalNodes>
            0 -1 94 4.5629856176674366e-03</internalNodes>
          <leafValues>
            -1.3887745141983032e-01 8.3183687925338745e-01</leafValues></_>
        <_>
          <internalNodes>
            0 -1 117 1.0017484892159700e-03</internalNodes>
          <leafValues>
            -2.0686247944831848e-01 4.3024295568466187e-01</leafValues></_>
        <_>
          <internalNodes>
            0 -1 108 -1.6914042644202709e-03</internalNodes>
          <leafValues>
            -5.3913813829421997e-01 1.9624374806880951e-01</leafValues></_>
        <_>
          <internalNodes>
            0 -1 38 1.5379569958895445e-04</internalNodes>
          <leafValues>
            2.2857975959777832e-01 -4.2391201853752136e-01</leafValues></_></weakClassifiers></_>
    <!-- stage 18 -->
    <_>
      <maxWeakCount>10</maxWeakCount>
      <stageThreshold>-9.6783119440078735e-01</stageThreshold>
      <weakClassifiers>
        <_>
          <internalNodes>
            0 -1 84 -8.4781497716903687e-03</internalNodes>
          <leafValues>
            9.4339624047279358e-02 -6.0355031490325928e-01</leafValues></_>
        <_>
          <internalNodes>
            0 -1 86 -2.9216152615845203e-03</internalNodes>
          <leafValues>
            5.7887792587280273e-01 -2.0559565722942352e-01</leafValues></_>
        <_>
          <internalNodes>
            0 -1 82 -7.5417000334709883e-04</internalNodes>
          <leafValues>
            4.5619520545005798e-01 -1.9661821424961090e-01</leafValues></_>
        <_>
          <internalNodes>
            0 -1 28 -3.2167372410185635e-05</internalNodes>
          <leafValues>
            -4.5317944884300232e-01 2.1031661331653595e-01</leafValues></_>
        <_>
          <internalNodes>
            0 -1 85 2.6742615737020969e-03</internalNodes>
          <leafValues>
            -1.4088149368762970e-01 5.9170407056808472e-01</leafValues></_>
        <_>
          <internalNodes>
            0 -1 62 -3.4561371430754662e-03</internalNodes>
          <leafValues>
            5.5240446329116821e-01 -1.8160563707351685e-01</leafValues></_>
        <_>
          <internalNodes>
            0 -1 103 9.5885465270839632e-05</internalNodes>
          <leafValues>
            2.3748047649860382e-01 -5.0202882289886475e-01</leafValues></_>
        <_>
          <internalNodes>
            0 -1 126 -1.0440701153129339e-03</internalNodes>
          <leafValues>
            3.5609310865402222e-01 -2.8948703408241272e-01</leafValues></_>
        <_>
          <internalNodes>
            0 -1 116 -2.6301683392375708e-03</internalNodes>
          <leafValues>
            6.4053964614868164e-01 -1.6914701461791992e-01</leafValues></_>
        <_>
          <internalNodes>
            0 -1 76 1.9676822703331709e-03</internalNodes>
          <leafValues>
            -2.0475813746452332e-01 4.6518620848655701e-01</leafValues></_></weakClassifiers></_>
    <!-- stage 19 -->
    <_>
      <maxWeakCount>15</maxWeakCount>
      <stageThreshold>-8.5566067695617676e-01</stageThreshold>
      <weakClassifiers>
        <_>
          <internalNodes>
            0 -1 64 -4.8145144246518612e-03</internalNodes>
          <leafValues>
            4.7222220897674561e-01 -4.5606693625450134e-01</leafValues></_>
        <_>
          <internalNodes>
            0 -1 81 1.5569503884762526e-03</internalNodes>
          <leafValues>
            -2.4675229191780090e-01 3.5032948851585388e-01</leafValues></_>
        <_>
          <internalNodes>
            0 -1 80 -2.2380338050425053e-03</internalNodes>
          <leafValues>
            5.1773631572723389e-01 -1.8347507715225220e-01</leafValues></_>
        <_>
          <internalNodes>
            0 -1 42 4.1378640162292868e-05</internalNodes>
          <leafValues>
            1.9972610473632813e-01 -4.3645632266998291e-01</leafValues></_>
        <_>
          <internalNodes>
            0 -1 71 -5.0725853070616722e-03</internalNodes>
          <leafValues>
            7.6395881175994873e-01 -8.0195449292659760e-02</leafValues></_>
        <_>
          <internalNodes>
            0 -1 142 -3.9779782295227051e-02</internalNodes>
          <leafValues>
            4.9587768316268921e-01 -1.8374314904212952e-01</leafValues></_>
        <_>
          <internalNodes>
            0 -1 133 1.8722711829468608e-03</internalNodes>
          <leafValues>
            -1.5454500913619995e-01 6.0339564085006714e-01</leafValues></_>
        <_>
          <internalNodes>
            0 -1 4 -3.4993598092114553e-05</internalNodes>
          <leafValues>
            -4.6719229221343994e-01 2.0261809229850769e-01</leafValues></_>
        <_>
          <internalNodes>
            0 -1 6 8.3250401075929403e-05</internalNodes>
          <leafValues>
            3.1746584177017212e-01 -3.3848857879638672e-01</leafValues></_>
        <_>
          <internalNodes>
            0 -1 111 -8.0642996181268245e-05</internalNodes>
          <leafValues>
            -4.6407604217529297e-01 1.7790979146957397e-01</leafValues></_>
        <_>
          <internalNodes>
            0 -1 120 6.3520227558910847e-04</internalNodes>
          <leafValues>
            2.0240215957164764e-01 -4.5036089420318604e-01</leafValues></_>
        <_>
          <internalNodes>
            0 -1 110 -8.2567417994141579e-03</internalNodes>
          <leafValues>
            8.3293801546096802e-01 -1.2307086586952209e-01</leafValues></_>
        <_>
          <internalNodes>
            0 -1 104 1.0245379526168108e-03</internalNodes>
          <leafValues>
            -1.3712930679321289e-01 6.0614633560180664e-01</leafValues></_>
        <_>
          <internalNodes>
            0 -1 70 3.2952495384961367e-03</internalNodes>
          <leafValues>
            -1.8851672112941742e-01 5.1605945825576782e-01</leafValues></_>
        <_>
          <internalNodes>
            0 -1 59 -5.4711732082068920e-03</internalNodes>
          <leafValues>
            5.6237697601318359e-01 -1.4341521263122559e-01</leafValues></_></weakClassifiers></_>
    <!-- stage 20 -->
    <_>
      <maxWeakCount>10</maxWeakCount>
      <stageThreshold>-9.6154230833053589e-01</stageThreshold>
      <weakClassifiers>
        <_>
          <internalNodes>
            0 -1 83 -4.6878587454557419e-05</internalNodes>
          <leafValues>
            4.3478261679410934e-02 -5.2459013462066650e-01</leafValues></_>
        <_>
          <internalNodes>
            0 -1 150 4.9221119843423367e-03</internalNodes>
          <leafValues>
            7.3273032903671265e-02 -7.9952305555343628e-01</leafValues></_>
        <_>
          <internalNodes>
            0 -1 90 -1.2001523828075733e-05</internalNodes>
          <leafValues>
            3.5425114631652832e-01 -2.3089927434921265e-01</leafValues></_>
        <_>
          <internalNodes>
            0 -1 147 -2.4801832623779774e-03</internalNodes>
          <leafValues>
            -6.7943584918975830e-01 1.4875109493732452e-01</leafValues></_>
        <_>
          <internalNodes>
            0 -1 172 3.0175680876709521e-04</internalNodes>
          <leafValues>
            1.5034438669681549e-01 -5.0736999511718750e-01</leafValues></_>
        <_>
          <internalNodes>
            0 -1 99 -3.1976527679944411e-05</internalNodes>
          <leafValues>
            3.7274554371833801e-01 -2.3271849751472473e-01</leafValues></_>
        <_>
          <internalNodes>
            0 -1 173 2.7816696092486382e-04</internalNodes>
          <leafValues>
            1.5950930118560791e-01 -6.4619714021682739e-01</leafValues></_>
        <_>
          <internalNodes>
            0 -1 154 -3.1104072695598006e-04</internalNodes>
          <leafValues>
            2.0123928785324097e-01 -4.1087704896926880e-01</leafValues></_>
        <_>
          <internalNodes>
            0 -1 115 1.2297457084059715e-02</internalNodes>
          <leafValues>
            -1.5843240916728973e-01 5.2051460742950439e-01</leafValues></_>
        <_>
          <internalNodes>
            0 -1 138 -1.4212076166586485e-05</internalNodes>
          <leafValues>
            3.4733331203460693e-01 -2.7633973956108093e-01</leafValues></_></weakClassifiers></_></stages>
  <features>
    <_>
      <rects>
        <_>
          0 0 1 2 -1.</_>
        <_>
          0 1 1 1 2.</_></rects>
      <tilted>0</tilted></_>
    <_>
      <rects>
        <_>
          0 0 2 2 -1.</_>
        <_>
          1 0 1 2 2.</_></rects>
      <tilted>0</tilted></_>
    <_>
      <rects>
        <_>
          0 0 2 3 -1.</_>
        <_>
          0 1 2 1 3.</_></rects>
      <tilted>0</tilted></_>
    <_>
      <rects>
        <_>
          0 0 4 2 -1.</_>
        <_>
          0 0 2 1 2.</_>
        <_>
          2 1 2 1 2.</_></rects>
      <tilted>0</tilted></_>
    <_>
      <rects>
        <_>
          0 0 4 2 -1.</_>
        <_>
          2 0 2 2 2.</_></rects>
      <tilted>0</tilted></_>
    <_>
      <rects>
        <_>
          0 0 4 4 -1.</_>
        <_>
          2 0 2 4 2.</_></rects>
      <tilted>0</tilted></_>
    <_>
      <rects>
        <_>
          0 0 9 2 -1.</_>
        <_>
          3 0 3 2 3.</_></rects>
      <tilted>0</tilted></_>
    <_>
      <rects>
        <_>
          0 0 8 12 -1.</_>
        <_>
          0 4 8 4 3.</_></rects>
      <tilted>0</tilted></_>
    <_>
      <rects>
        <_>
          0 0 22 1 -1.</_>
        <_>
          11 0 11 1 2.</_></rects>
      <tilted>0</tilted></_>
    <_>
      <rects>
        <_>
          0 0 22 23 -1.</_>
        <_>
          11 0 11 23 2.</_></rects>
      <tilted>0</tilted></_>
    <_>
      <rects>
        <_>
          0 0 15 24 -1.</_>
        <_>
          0 12 15 12 2.</_></rects>
      <tilted>0</tilted></_>
    <_>
      <rects>
        <_>
          0 0 19 14 -1.</_>
        <_>
          0 7 19 7 2.</_></rects>
      <tilted>0</tilted></_>
    <_>
      <rects>
        <_>
          0 0 24 24 -1.</_>
        <_>
          0 8 24 8 3.</_></rects>
      <tilted>0</tilted></_>
    <_>
      <rects>
        <_>
          0 1 5 3 -1.</_>
        <_>
          0 2 5 1 3.</_></rects>
      <tilted>0</tilted></_>
    <_>
      <rects>
        <_>
          0 1 10 18 -1.</_>
        <_>
          5 1 5 18 2.</_></rects>
      <tilted>0</tilted></_>
    <_>
      <rects>
        <_>
          0 3 10 20 -1.</_>
        <_>
          5 3 5 20 2.</_></rects>
      <tilted>0</tilted></_>
    <_>
      <rects>
        <_>
          0 4 1 3 -1.</_>
        <_>
          0 5 1 1 3.</_></rects>
      <tilted>0</tilted></_>
    <_>
      <rects>
        <_>
          0 4 2 3 -1.</_>
        <_>
          0 5 2 1 3.</_></rects>
      <tilted>0</tilted></_>
    <_>
      <rects>
        <_>
          0 4 12 13 -1.</_>
        <_>
          6 4 6 13 2.</_></rects>
      <tilted>0</tilted></_>
    <_>
      <rects>
        <_>
          0 4 24 17 -1.</_>
        <_>
          8 4 8 17 3.</_></rects>
      <tilted>0</tilted></_>
    <_>
      <rects>
        <_>
          0 4 24 20 -1.</_>
        <_>
          12 4 12 20 2.</_></rects>
      <tilted>0</tilted></_>
    <_>
      <rects>
        <_>
          0 6 8 13 -1.</_>
        <_>
          4 6 4 13 2.</_></rects>
      <tilted>0</tilted></_>
    <_>
      <rects>
        <_>
          0 6 12 3 -1.</_>
        <_>
          0 7 12 1 3.</_></rects>
      <tilted>0</tilted></_>
    <_>
      <rects>
        <_>
          0 7 6 6 -1.</_>
        <_>
          2 7 2 6 3.</_></rects>
      <tilted>0</tilted></_>
    <_>
      <rects>
        <_>
          0 7 12 10 -1.</_>
        <_>
          4 7 4 10 3.</_></rects>
      <tilted>0</tilted></_>
    <_>
      <rects>
        <_>
          0 13 2 5 -1.</_>
        <_>
          1 13 1 5 2.</_></rects>
      <tilted>0</tilted></_>
    <_>
      <rects>
        <_>
          0 14 7 3 -1.</_>
        <_>
          0 15 7 1 3.</_></rects>
      <tilted>0</tilted></_>
    <_>
      <rects>
        <_>
          0 16 3 2 -1.</_>
        <_>
          1 16 1 2 3.</_></rects>
      <tilted>0</tilted></_>
    <_>
      <rects>
        <_>
          0 17 2 4 -1.</_>
        <_>
          1 17 1 4 2.</_></rects>
      <tilted>0</tilted></_>
    <_>
      <rects>
        <_>
          0 17 2 6 -1.</_>
        <_>
          0 20 2 3 2.</_></rects>
      <tilted>0</tilted></_>
    <_>
      <rects>
        <_>
          0 18 1 4 -1.</_>
        <_>
          0 20 1 2 2.</_></rects>
      <tilted>0</tilted></_>
    <_>
      <rects>
        <_>
          0 18 5 6 -1.</_>
        <_>
          0 20 5 2 3.</_></rects>
      <tilted>0</tilted></_>
    <_>
      <rects>
        <_>
          0 19 1 3 -1.</_>
        <_>
          0 20 1 1 3.</_></rects>
      <tilted>0</tilted></_>
    <_>
      <rects>
        <_>
          1 0 11 8 -1.</_>
        <_>
          1 4 11 4 2.</_></rects>
      <tilted>0</tilted></_>
    <_>
      <rects>
        <_>
          1 0 15 24 -1.</_>
        <_>
          1 8 15 8 3.</_></rects>
      <tilted>0</tilted></_>
    <_>
      <rects>
        <_>
          1 0 16 24 -1.</_>
        <_>
          1 12 16 12 2.</_></rects>
      <tilted>0</tilted></_>
    <_>
      <rects>
        <_>
          1 0 18 24 -1.</_>
        <_>
          1 8 18 8 3.</_></rects>
      <tilted>0</tilted></_>
    <_>
      <rects>
        <_>
          1 1 2 3 -1.</_>
        <_>
          1 2 2 1 3.</_></rects>
      <tilted>0</tilted></_>
    <_>
      <rects>
        <_>
          1 1 3 2 -1.</_>
        <_>
          1 2 3 1 2.</_></rects>
      <tilted>0</tilted></_>
    <_>
      <rects>
        <_>
          1 2 2 3 -1.</_>
        <_>
          1 3 2 1 3.</_></rects>
      <tilted>0</tilted></_>
    <_>
      <rects>
        <_>
          1 4 8 18 -1.</_>
        <_>
          1 10 8 6 3.</_></rects>
      <tilted>0</tilted></_>
    <_>
      <rects>
        <_>
          1 8 6 6 -1.</_>
        <_>
          1 8 3 3 2.</_>
        <_>
          4 11 3 3 2.</_></rects>
      <tilted>0</tilted></_>
    <_>
      <rects>
        <_>
          1 15 1 2 -1.</_>
        <_>
          1 16 1 1 2.</_></rects>
      <tilted>0</tilted></_>
    <_>
      <rects>
        <_>
          1 17 7 3 -1.</_>
        <_>
          1 18 7 1 3.</_></rects>
      <tilted>0</tilted></_>
    <_>
      <rects>
        <_>
          1 18 2 3 -1.</_>
        <_>
          1 19 2 1 3.</_></rects>
      <tilted>0</tilted></_>
    <_>
      <rects>
        <_>
          2 0 22 7 -1.</_>
        <_>
          13 0 11 7 2.</_></rects>
      <tilted>0</tilted></_>
    <_>
      <rects>
        <_>
          2 0 15 12 -1.</_>
        <_>
          2 6 15 6 2.</_></rects>
      <tilted>0</tilted></_>
    <_>
      <rects>
        <_>
          2 1 1 3 -1.</_>
        <_>
          2 2 1 1 3.</_></rects>
      <tilted>0</tilted></_>
    <_>
      <rects>
        <_>
          2 1 3 3 -1.</_>
        <_>
          2 2 3 1 3.</_></rects>
      <tilted>0</tilted></_>
    <_>
      <rects>
        <_>
          2 1 22 23 -1.</_>
        <_>
          13 1 11 23 2.</_></rects>
      <tilted>0</tilted></_>
    <_>
      <rects>
        <_>
          2 5 8 8 -1.</_>
        <_>
          2 5 4 4 2.</_>
        <_>
          6 9 4 4 2.</_></rects>
      <tilted>0</tilted></_>
    <_>
      <rects>
        <_>
          2 8 18 4 -1.</_>
        <_>
          2 10 18 2 2.</_></rects>
      <tilted>0</tilted></_>
    <_>
      <rects>
        <_>
          2 17 3 2 -1.</_>
        <_>
          2 18 3 1 2.</_></rects>
      <tilted>0</tilted></_>
    <_>
      <rects>
        <_>
          2 17 9 3 -1.</_>
        <_>
          5 17 3 3 3.</_></rects>
      <tilted>0</tilted></_>
    <_>
      <rects>
        <_>
          3 0 12 21 -1.</_>
        <_>
          3 7 12 7 3.</_></rects>
      <tilted>0</tilted></_>
    <_>
      <rects>
        <_>
          3 0 13 14 -1.</_>
        <_>
          3 7 13 7 2.</_></rects>
      <tilted>0</tilted></_>
    <_>
      <rects>
        <_>
          3 4 4 9 -1.</_>
        <_>
          5 4 2 9 2.</_></rects>
      <tilted>0</tilted></_>
    <_>
      <rects>
        <_>
          3 6 9 2 -1.</_>
        <_>
          6 6 3 2 3.</_></rects>
      <tilted>0</tilted></_>
    <_>
      <rects>
        <_>
          3 11 2 1 -1.</_>
        <_>
          4 11 1 1 2.</_></rects>
      <tilted>0</tilted></_>
    <_>
      <rects>
        <_>
          3 16 6 4 -1.</_>
        <_>
          5 16 2 4 3.</_></rects>
      <tilted>0</tilted></_>
    <_>
      <rects>
        <_>
          3 21 1 3 -1.</_>
        <_>
          3 22 1 1 3.</_></rects>
      <tilted>0</tilted></_>
    <_>
      <rects>
        <_>
          4 5 6 2 -1.</_>
        <_>
          6 5 2 2 3.</_></rects>
      <tilted>0</tilted></_>
    <_>
      <rects>
        <_>
          4 5 4 6 -1.</_>
        <_>
          4 5 2 3 2.</_>
        <_>
          6 8 2 3 2.</_></rects>
      <tilted>0</tilted></_>
    <_>
      <rects>
        <_>
          4 7 2 3 -1.</_>
        <_>
          5 7 1 3 2.</_></rects>
      <tilted>0</tilted></_>
    <_>
      <rects>
        <_>
          4 12 1 9 -1.</_>
        <_>
          4 15 1 3 3.</_></rects>
      <tilted>0</tilted></_>
    <_>
      <rects>
        <_>
          4 13 6 4 -1.</_>
        <_>
          6 13 2 4 3.</_></rects>
      <tilted>0</tilted></_>
    <_>
      <rects>
        <_>
          4 16 18 3 -1.</_>
        <_>
          4 17 18 1 3.</_></rects>
      <tilted>0</tilted></_>
    <_>
      <rects>
        <_>
          4 22 8 2 -1.</_>
        <_>
          4 23 8 1 2.</_></rects>
      <tilted>0</tilted></_>
    <_>
      <rects>
        <_>
          5 0 3 2 -1.</_>
        <_>
          5 1 3 1 2.</_></rects>
      <tilted>0</tilted></_>
    <_>
      <rects>
        <_>
          5 4 6 3 -1.</_>
        <_>
          7 4 2 3 3.</_></rects>
      <tilted>0</tilted></_>
    <_>
      <rects>
        <_>
          5 5 3 6 -1.</_>
        <_>
          6 5 1 6 3.</_></rects>
      <tilted>0</tilted></_>
    <_>
      <rects>
        <_>
          5 8 4 4 -1.</_>
        <_>
          5 8 2 2 2.</_>
        <_>
          7 10 2 2 2.</_></rects>
      <tilted>0</tilted></_>
    <_>
      <rects>
        <_>
          5 19 3 2 -1.</_>
        <_>
          5 20 3 1 2.</_></rects>
      <tilted>0</tilted></_>
    <_>
      <rects>
        <_>
          6 2 6 5 -1.</_>
        <_>
          8 2 2 5 3.</_></rects>
      <tilted>0</tilted></_>
    <_>
      <rects>
        <_>
          6 3 15 6 -1.</_>
        <_>
          11 3 5 6 3.</_></rects>
      <tilted>0</tilted></_>
    <_>
      <rects>
        <_>
          6 4 2 6 -1.</_>
        <_>
          6 6 2 2 3.</_></rects>
      <tilted>0</tilted></_>
    <_>
      <rects>
        <_>
          6 7 2 14 -1.</_>
        <_>
          6 7 1 7 2.</_>
        <_>
          7 14 1 7 2.</_></rects>
      <tilted>0</tilted></_>
    <_>
      <rects>
        <_>
          6 13 1 2 -1.</_>
        <_>
          6 14 1 1 2.</_></rects>
      <tilted>0</tilted></_>
    <_>
      <rects>
        <_>
          6 16 2 1 -1.</_>
        <_>
          7 16 1 1 2.</_></rects>
      <tilted>0</tilted></_>
    <_>
      <rects>
        <_>
          7 0 16 14 -1.</_>
        <_>
          7 7 16 7 2.</_></rects>
      <tilted>0</tilted></_>
    <_>
      <rects>
        <_>
          7 5 3 3 -1.</_>
        <_>
          8 5 1 3 3.</_></rects>
      <tilted>0</tilted></_>
    <_>
      <rects>
        <_>
          7 6 3 11 -1.</_>
        <_>
          8 6 1 11 3.</_></rects>
      <tilted>0</tilted></_>
    <_>
      <rects>
        <_>
          7 13 3 2 -1.</_>
        <_>
          7 14 3 1 2.</_></rects>
      <tilted>0</tilted></_>
    <_>
      <rects>
        <_>
          7 16 2 2 -1.</_>
        <_>
          7 16 1 1 2.</_>
        <_>
          8 17 1 1 2.</_></rects>
      <tilted>0</tilted></_>
    <_>
      <rects>
        <_>
          7 18 11 6 -1.</_>
        <_>
          7 21 11 3 2.</_></rects>
      <tilted>0</tilted></_>
    <_>
      <rects>
        <_>
          8 2 4 4 -1.</_>
        <_>
          8 2 2 2 2.</_>
        <_>
          10 4 2 2 2.</_></rects>
      <tilted>0</tilted></_>
    <_>
      <rects>
        <_>
          8 3 2 8 -1.</_>
        <_>
          8 3 1 4 2.</_>
        <_>
          9 7 1 4 2.</_></rects>
      <tilted>0</tilted></_>
    <_>
      <rects>
        <_>
          8 17 1 2 -1.</_>
        <_>
          8 18 1 1 2.</_></rects>
      <tilted>0</tilted></_>
    <_>
      <rects>
        <_>
          9 1 6 17 -1.</_>
        <_>
          11 1 2 17 3.</_></rects>
      <tilted>0</tilted></_>
    <_>
      <rects>
        <_>
          9 2 10 2 -1.</_>
        <_>
          9 3 10 1 2.</_></rects>
      <tilted>0</tilted></_>
    <_>
      <rects>
        <_>
          9 7 1 2 -1.</_>
        <_>
          9 8 1 1 2.</_></rects>
      <tilted>0</tilted></_>
    <_>
      <rects>
        <_>
          9 11 8 2 -1.</_>
        <_>
          9 12 8 1 2.</_></rects>
      <tilted>0</tilted></_>
    <_>
      <rects>
        <_>
          9 17 1 2 -1.</_>
        <_>
          9 18 1 1 2.</_></rects>
      <tilted>0</tilted></_>
    <_>
      <rects>
        <_>
          10 1 6 6 -1.</_>
        <_>
          10 1 3 3 2.</_>
        <_>
          13 4 3 3 2.</_></rects>
      <tilted>0</tilted></_>
    <_>
      <rects>
        <_>
          10 17 6 1 -1.</_>
        <_>
          12 17 2 1 3.</_></rects>
      <tilted>0</tilted></_>
    <_>
      <rects>
        <_>
          10 17 11 3 -1.</_>
        <_>
          10 18 11 1 3.</_></rects>
      <tilted>0</tilted></_>
    <_>
      <rects>
        <_>
          10 19 1 2 -1.</_>
        <_>
          10 20 1 1 2.</_></rects>
      <tilted>0</tilted></_>
    <_>
      <rects>
        <_>
          11 0 9 23 -1.</_>
        <_>
          14 0 3 23 3.</_></rects>
      <tilted>0</tilted></_>
    <_>
      <rects>
        <_>
          11 0 13 4 -1.</_>
        <_>
          11 2 13 2 2.</_></rects>
      <tilted>0</tilted></_>
    <_>
      <rects>
        <_>
          11 5 2 2 -1.</_>
        <_>
          11 5 1 1 2.</_>
        <_>
          12 6 1 1 2.</_></rects>
      <tilted>0</tilted></_>
    <_>
      <rects>
        <_>
          11 9 2 1 -1.</_>
        <_>
          12 9 1 1 2.</_></rects>
      <tilted>0</tilted></_>
    <_>
      <rects>
        <_>
          11 12 12 4 -1.</_>
        <_>
          11 12 6 2 2.</_>
        <_>
          17 14 6 2 2.</_></rects>
      <tilted>0</tilted></_>
    <_>
      <rects>
        <_>
          11 21 8 2 -1.</_>
        <_>
          15 21 4 2 2.</_></rects>
      <tilted>0</tilted></_>
    <_>
      <rects>
        <_>
          12 0 2 1 -1.</_>
        <_>
          13 0 1 1 2.</_></rects>
      <tilted>0</tilted></_>
    <_>
      <rects>
        <_>
          12 6 4 2 -1.</_>
        <_>
          12 6 2 1 2.</_>
        <_>
          14 7 2 1 2.</_></rects>
      <tilted>0</tilted></_>
    <_>
      <rects>
        <_>
          12 7 12 1 -1.</_>
        <_>
          16 7 4 1 3.</_></rects>
      <tilted>0</tilted></_>
    <_>
      <rects>
        <_>
          12 9 2 2 -1.</_>
        <_>
          12 9 1 1 2.</_>
        <_>
          13 10 1 1 2.</_></rects>
      <tilted>0</tilted></_>
    <_>
      <rects>
        <_>
          12 10 11 8 -1.</_>
        <_>
          12 14 11 4 2.</_></rects>
      <tilted>0</tilted></_>
    <_>
      <rects>
        <_>
          12 12 3 7 -1.</_>
        <_>
          13 12 1 7 3.</_></rects>
      <tilted>0</tilted></_>
    <_>
      <rects>
        <_>
          12 14 8 10 -1.</_>
        <_>
          12 19 8 5 2.</_></rects>
      <tilted>0</tilted></_>
    <_>
      <rects>
        <_>
          12 19 6 4 -1.</_>
        <_>
          12 19 3 2 2.</_>
        <_>
          15 21 3 2 2.</_></rects>
      <tilted>0</tilted></_>
    <_>
      <rects>
        <_>
          12 23 2 1 -1.</_>
        <_>
          13 23 1 1 2.</_></rects>
      <tilted>0</tilted></_>
    <_>
      <rects>
        <_>
          13 0 5 12 -1.</_>
        <_>
          13 4 5 4 3.</_></rects>
      <tilted>0</tilted></_>
    <_>
      <rects>
        <_>
          13 14 2 1 -1.</_>
        <_>
          14 14 1 1 2.</_></rects>
      <tilted>0</tilted></_>
    <_>
      <rects>
        <_>
          14 0 9 2 -1.</_>
        <_>
          14 1 9 1 2.</_></rects>
      <tilted>0</tilted></_>
    <_>
      <rects>
        <_>
          14 2 1 18 -1.</_>
        <_>
          14 11 1 9 2.</_></rects>
      <tilted>0</tilted></_>
    <_>
      <rects>
        <_>
          14 4 2 7 -1.</_>
        <_>
          15 4 1 7 2.</_></rects>
      <tilted>0</tilted></_>
    <_>
      <rects>
        <_>
          14 5 2 9 -1.</_>
        <_>
          15 5 1 9 2.</_></rects>
      <tilted>0</tilted></_>
    <_>
      <rects>
        <_>
          14 10 1 9 -1.</_>
        <_>
          14 13 1 3 3.</_></rects>
      <tilted>0</tilted></_>
    <_>
      <rects>
        <_>
          14 11 7 12 -1.</_>
        <_>
          14 17 7 6 2.</_></rects>
      <tilted>0</tilted></_>
    <_>
      <rects>
        <_>
          15 0 8 1 -1.</_>
        <_>
          19 0 4 1 2.</_></rects>
      <tilted>0</tilted></_>
    <_>
      <rects>
        <_>
          15 0 9 18 -1.</_>
        <_>
          15 6 9 6 3.</_></rects>
      <tilted>0</tilted></_>
    <_>
      <rects>
        <_>
          15 6 2 2 -1.</_>
        <_>
          15 6 1 1 2.</_>
        <_>
          16 7 1 1 2.</_></rects>
      <tilted>0</tilted></_>
    <_>
      <rects>
        <_>
          15 7 6 11 -1.</_>
        <_>
          17 7 2 11 3.</_></rects>
      <tilted>0</tilted></_>
    <_>
      <rects>
        <_>
          15 9 1 2 -1.</_>
        <_>
          15 10 1 1 2.</_></rects>
      <tilted>0</tilted></_>
    <_>
      <rects>
        <_>
          15 11 2 2 -1.</_>
        <_>
          15 12 2 1 2.</_></rects>
      <tilted>0</tilted></_>
    <_>
      <rects>
        <_>
          15 13 9 2 -1.</_>
        <_>
          15 14 9 1 2.</_></rects>
      <tilted>0</tilted></_>
    <_>
      <rects>
        <_>
          15 15 2 6 -1.</_>
        <_>
          15 17 2 2 3.</_></rects>
      <tilted>0</tilted></_>
    <_>
      <rects>
        <_>
          15 20 1 2 -1.</_>
        <_>
          15 21 1 1 2.</_></rects>
      <tilted>0</tilted></_>
    <_>
      <rects>
        <_>
          15 23 2 1 -1.</_>
        <_>
          16 23 1 1 2.</_></rects>
      <tilted>0</tilted></_>
    <_>
      <rects>
        <_>
          16 2 1 15 -1.</_>
        <_>
          16 7 1 5 3.</_></rects>
      <tilted>0</tilted></_>
    <_>
      <rects>
        <_>
          16 4 3 12 -1.</_>
        <_>
          17 4 1 12 3.</_></rects>
      <tilted>0</tilted></_>
    <_>
      <rects>
        <_>
          16 5 2 4 -1.</_>
        <_>
          16 5 1 2 2.</_>
        <_>
          17 7 1 2 2.</_></rects>
      <tilted>0</tilted></_>
    <_>
      <rects>
        <_>
          16 6 6 2 -1.</_>
        <_>
          16 6 3 1 2.</_>
        <_>
          19 7 3 1 2.</_></rects>
      <tilted>0</tilted></_>
    <_>
      <rects>
        <_>
          16 10 6 3 -1.</_>
        <_>
          18 10 2 3 3.</_></rects>
      <tilted>0</tilted></_>
    <_>
      <rects>
        <_>
          16 11 6 6 -1.</_>
        <_>
          18 11 2 6 3.</_></rects>
      <tilted>0</tilted></_>
    <_>
      <rects>
        <_>
          17 0 2 3 -1.</_>
        <_>
          17 1 2 1 3.</_></rects>
      <tilted>0</tilted></_>
    <_>
      <rects>
        <_>
          17 3 3 9 -1.</_>
        <_>
          17 6 3 3 3.</_></rects>
      <tilted>0</tilted></_>
    <_>
      <rects>
        <_>
          17 11 1 2 -1.</_>
        <_>
          17 12 1 1 2.</_></rects>
      <tilted>0</tilted></_>
    <_>
      <rects>
        <_>
          17 21 7 3 -1.</_>
        <_>
          17 22 7 1 3.</_></rects>
      <tilted>0</tilted></_>
    <_>
      <rects>
        <_>
          18 0 1 3 -1.</_>
        <_>
          18 1 1 1 3.</_></rects>
      <tilted>0</tilted></_>
    <_>
      <rects>
        <_>
          18 1 1 2 -1.</_>
        <_>
          18 2 1 1 2.</_></rects>
      <tilted>0</tilted></_>
    <_>
      <rects>
        <_>
          18 7 6 13 -1.</_>
        <_>
          21 7 3 13 2.</_></rects>
      <tilted>0</tilted></_>
    <_>
      <rects>
        <_>
          18 13 1 2 -1.</_>
        <_>
          18 14 1 1 2.</_></rects>
      <tilted>0</tilted></_>
    <_>
      <rects>
        <_>
          18 14 1 2 -1.</_>
        <_>
          18 15 1 1 2.</_></rects>
      <tilted>0</tilted></_>
    <_>
      <rects>
        <_>
          18 19 6 5 -1.</_>
        <_>
          20 19 2 5 3.</_></rects>
      <tilted>0</tilted></_>
    <_>
      <rects>
        <_>
          18 22 2 2 -1.</_>
        <_>
          18 23 2 1 2.</_></rects>
      <tilted>0</tilted></_>
    <_>
      <rects>
        <_>
          19 6 4 3 -1.</_>
        <_>
          19 7 4 1 3.</_></rects>
      <tilted>0</tilted></_>
    <_>
      <rects>
        <_>
          19 21 3 1 -1.</_>
        <_>
          20 21 1 1 3.</_></rects>
      <tilted>0</tilted></_>
    <_>
      <rects>
        <_>
          20 0 4 14 -1.</_>
        <_>
          22 0 2 14 2.</_></rects>
      <tilted>0</tilted></_>
    <_>
      <rects>
        <_>
          20 13 3 11 -1.</_>
        <_>
          21 13 1 11 3.</_></rects>
      <tilted>0</tilted></_>
    <_>
      <rects>
        <_>
          20 18 4 1 -1.</_>
        <_>
          22 18 2 1 2.</_></rects>
      <tilted>0</tilted></_>
    <_>
      <rects>
        <_>
          21 0 2 2 -1.</_>
        <_>
          22 0 1 2 2.</_></rects>
      <tilted>0</tilted></_>
    <_>
      <rects>
        <_>
          21 0 3 3 -1.</_>
        <_>
          21 1 3 1 3.</_></rects>
      <tilted>0</tilted></_>
    <_>
      <rects>
        <_>
          21 4 2 18 -1.</_>
        <_>
          22 4 1 18 2.</_></rects>
      <tilted>0</tilted></_>
    <_>
      <rects>
        <_>
          21 5 2 1 -1.</_>
        <_>
          22 5 1 1 2.</_></rects>
      <tilted>0</tilted></_>
    <_>
      <rects>
        <_>
          21 5 2 15 -1.</_>
        <_>
          22 5 1 15 2.</_></rects>
      <tilted>0</tilted></_>
    <_>
      <rects>
        <_>
          21 10 2 2 -1.</_>
        <_>
          21 10 1 1 2.</_>
        <_>
          22 11 1 1 2.</_></rects>
      <tilted>0</tilted></_>
    <_>
      <rects>
        <_>
          21 13 3 3 -1.</_>
        <_>
          21 14 3 1 3.</_></rects>
      <tilted>0</tilted></_>
    <_>
      <rects>
        <_>
          21 15 3 7 -1.</_>
        <_>
          22 15 1 7 3.</_></rects>
      <tilted>0</tilted></_>
    <_>
      <rects>
        <_>
          21 15 3 9 -1.</_>
        <_>
          22 15 1 9 3.</_></rects>
      <tilted>0</tilted></_>
    <_>
      <rects>
        <_>
          21 16 3 8 -1.</_>
        <_>
          22 16 1 8 3.</_></rects>
      <tilted>0</tilted></_>
    <_>
      <rects>
        <_>
          21 18 3 6 -1.</_>
        <_>
          22 18 1 6 3.</_></rects>
      <tilted>0</tilted></_>
    <_>
      <rects>
        <_>
          21 19 3 4 -1.</_>
        <_>
          22 19 1 4 3.</_></rects>
      <tilted>0</tilted></_>
    <_>
      <rects>
        <_>
          21 22 2 1 -1.</_>
        <_>
          22 22 1 1 2.</_></rects>
      <tilted>0</tilted></_>
    <_>
      <rects>
        <_>
          22 0 2 3 -1.</_>
        <_>
          22 1 2 1 3.</_></rects>
      <tilted>0</tilted></_>
    <_>
      <rects>
        <_>
          22 1 2 3 -1.</_>
        <_>
          22 2 2 1 3.</_></rects>
      <tilted>0</tilted></_>
    <_>
      <rects>
        <_>
          22 2 2 3 -1.</_>
        <_>
          22 3 2 1 3.</_></rects>
      <tilted>0</tilted></_>
    <_>
      <rects>
        <_>
          22 10 2 2 -1.</_>
        <_>
          22 11 2 1 2.</_></rects>
      <tilted>0</tilted></_>
    <_>
      <rects>
        <_>
          22 13 2 2 -1.</_>
        <_>
          22 13 1 1 2.</_>
        <_>
          23 14 1 1 2.</_></rects>
      <tilted>0</tilted></_>
    <_>
      <rects>
        <_>
          22 14 1 3 -1.</_>
        <_>
          22 15 1 1 3.</_></rects>
      <tilted>0</tilted></_>
    <_>
      <rects>
        <_>
          22 18 1 3 -1.</_>
        <_>
          22 19 1 1 3.</_></rects>
      <tilted>0</tilted></_>
    <_>
      <rects>
        <_>
          22 20 1 4 -1.</_>
        <_>
          22 22 1 2 2.</_></rects>
      <tilted>0</tilted></_>
    <_>
      <rects>
        <_>
          23 4 1 3 -1.</_>
        <_>
          23 5 1 1 3.</_></rects>
      <tilted>0</tilted></_>
    <_>
      <rects>
        <_>
          23 12 1 3 -1.</_>
        <_>
          23 13 1 1 3.</_></rects>
      <tilted>0</tilted></_>
    <_>
      <rects>
        <_>
          23 17 1 2 -1.</_>
        <_>
          23 18 1 1 2.</_></rects>
      <tilted>0</tilted></_>
    <_>
      <rects>
        <_>
          23 17 1 3 -1.</_>
        <_>
          23 18 1 1 3.</_></rects>
      <tilted>0</tilted></_></features></cascade>
</opencv_storage>
